digraph Tree {
node [shape=box, style="rounded", color="black", fontname="helvetica"] ;
edge [fontname="helvetica"] ;
0 [label="G2 <= -0.3\nsquared_error = 18.2\nsamples = 193\nvalue = 10.6"] ;
1 [label="G2 <= -1.4\nsquared_error = 12.7\nsamples = 72\nvalue = 6.5"] ;
0 -> 1 [labeldistance=2.5, labelangle=45, headlabel="True"] ;
2 [label="absences <= -0.5\nsquared_error = 5.4\nsamples = 16\nvalue = 1.3"] ;
1 -> 2 ;
3 [label="squared_error = 0.0\nsamples = 10\nvalue = 0.0"] ;
2 -> 3 ;
4 [label="reason <= 0.6\nsquared_error = 0.2\nsamples = 6\nvalue = 5.3"] ;
2 -> 4 ;
5 [label="squared_error = 0.0\nsamples = 4\nvalue = 5.0"] ;
4 -> 5 ;
6 [label="squared_error = 0.0\nsamples = 2\nvalue = 6.0"] ;
4 -> 6 ;
7 [label="G2 <= -0.6\nsquared_error = 5.9\nsamples = 56\nvalue = 7.8"] ;
1 -> 7 ;
8 [label="health <= -0.8\nsquared_error = 6.4\nsamples = 33\nvalue = 6.8"] ;
7 -> 8 ;
9 [label="age <= 0.2\nsquared_error = 11.6\nsamples = 4\nvalue = 3.3"] ;
8 -> 9 ;
10 [label="schoolsup <= 1.1\nsquared_error = 0.9\nsamples = 2\nvalue = 6.7"] ;
9 -> 10 ;
11 [label="squared_error = 0.0\nsamples = 1\nvalue = 6.0"] ;
10 -> 11 ;
12 [label="squared_error = 0.0\nsamples = 1\nvalue = 8.0"] ;
10 -> 12 ;
13 [label="squared_error = 0.0\nsamples = 2\nvalue = 0.0"] ;
9 -> 13 ;
14 [label="Fjob <= -2.1\nsquared_error = 3.8\nsamples = 29\nvalue = 7.3"] ;
8 -> 14 ;
15 [label="squared_error = 0.0\nsamples = 1\nvalue = 0.0"] ;
14 -> 15 ;
16 [label="G2 <= -1.1\nsquared_error = 2.6\nsamples = 28\nvalue = 7.5"] ;
14 -> 16 ;
17 [label="higher <= -2.1\nsquared_error = 5.0\nsamples = 6\nvalue = 5.5"] ;
16 -> 17 ;
18 [label="squared_error = 0.0\nsamples = 1\nvalue = 0.0"] ;
17 -> 18 ;
19 [label="sex <= 0.0\nsquared_error = 0.8\nsamples = 5\nvalue = 6.3"] ;
17 -> 19 ;
20 [label="traveltime <= 0.1\nsquared_error = 0.2\nsamples = 3\nvalue = 5.8"] ;
19 -> 20 ;
21 [label="squared_error = 0.0\nsamples = 1\nvalue = 5.0"] ;
20 -> 21 ;
22 [label="squared_error = 0.0\nsamples = 2\nvalue = 6.0"] ;
20 -> 22 ;
23 [label="romantic <= 0.3\nsquared_error = 0.2\nsamples = 2\nvalue = 7.5"] ;
19 -> 23 ;
24 [label="squared_error = 0.0\nsamples = 1\nvalue = 8.0"] ;
23 -> 24 ;
25 [label="squared_error = 0.0\nsamples = 1\nvalue = 7.0"] ;
23 -> 25 ;
26 [label="Mjob <= -0.6\nsquared_error = 0.9\nsamples = 22\nvalue = 7.9"] ;
16 -> 26 ;
27 [label="reason <= -0.6\nsquared_error = 0.4\nsamples = 7\nvalue = 8.7"] ;
26 -> 27 ;
28 [label="studytime <= -0.6\nsquared_error = 0.1\nsamples = 4\nvalue = 9.2"] ;
27 -> 28 ;
29 [label="squared_error = 0.0\nsamples = 1\nvalue = 10.0"] ;
28 -> 29 ;
30 [label="squared_error = 0.0\nsamples = 3\nvalue = 9.0"] ;
28 -> 30 ;
31 [label="paid <= 0.1\nsquared_error = 0.2\nsamples = 3\nvalue = 8.2"] ;
27 -> 31 ;
32 [label="squared_error = 0.0\nsamples = 1\nvalue = 9.0"] ;
31 -> 32 ;
33 [label="squared_error = 0.0\nsamples = 2\nvalue = 8.0"] ;
31 -> 33 ;
34 [label="Fedu <= -1.0\nsquared_error = 0.7\nsamples = 15\nvalue = 7.6"] ;
26 -> 34 ;
35 [label="absences <= 2.6\nsquared_error = 0.5\nsamples = 5\nvalue = 7.0"] ;
34 -> 35 ;
36 [label="famsup <= -0.2\nsquared_error = 0.2\nsamples = 4\nvalue = 6.7"] ;
35 -> 36 ;
37 [label="squared_error = 0.0\nsamples = 2\nvalue = 7.0"] ;
36 -> 37 ;
38 [label="squared_error = 0.0\nsamples = 2\nvalue = 6.0"] ;
36 -> 38 ;
39 [label="squared_error = 0.0\nsamples = 1\nvalue = 8.0"] ;
35 -> 39 ;
40 [label="age <= -0.9\nsquared_error = 0.5\nsamples = 10\nvalue = 7.9"] ;
34 -> 40 ;
41 [label="nursery <= -0.7\nsquared_error = 0.2\nsamples = 2\nvalue = 6.5"] ;
40 -> 41 ;
42 [label="squared_error = 0.0\nsamples = 1\nvalue = 7.0"] ;
41 -> 42 ;
43 [label="squared_error = 0.0\nsamples = 1\nvalue = 6.0"] ;
41 -> 43 ;
44 [label="Fjob <= 0.3\nsquared_error = 0.2\nsamples = 8\nvalue = 8.1"] ;
40 -> 44 ;
45 [label="studytime <= 0.6\nsquared_error = 0.1\nsamples = 6\nvalue = 7.9"] ;
44 -> 45 ;
46 [label="squared_error = 0.0\nsamples = 5\nvalue = 8.0"] ;
45 -> 46 ;
47 [label="squared_error = 0.0\nsamples = 1\nvalue = 7.0"] ;
45 -> 47 ;
48 [label="squared_error = 0.0\nsamples = 2\nvalue = 9.0"] ;
44 -> 48 ;
49 [label="studytime <= 1.8\nsquared_error = 2.7\nsamples = 23\nvalue = 9.0"] ;
7 -> 49 ;
50 [label="absences <= 0.6\nsquared_error = 0.7\nsamples = 22\nvalue = 9.2"] ;
49 -> 50 ;
51 [label="G1 <= -1.4\nsquared_error = 0.6\nsamples = 15\nvalue = 9.5"] ;
50 -> 51 ;
52 [label="squared_error = 0.0\nsamples = 1\nvalue = 7.0"] ;
51 -> 52 ;
53 [label="Fjob <= -0.9\nsquared_error = 0.4\nsamples = 14\nvalue = 9.6"] ;
51 -> 53 ;
54 [label="health <= 0.7\nsquared_error = 0.2\nsamples = 2\nvalue = 8.5"] ;
53 -> 54 ;
55 [label="squared_error = 0.0\nsamples = 1\nvalue = 9.0"] ;
54 -> 55 ;
56 [label="squared_error = 0.0\nsamples = 1\nvalue = 8.0"] ;
54 -> 56 ;
57 [label="Dalc <= 2.2\nsquared_error = 0.1\nsamples = 12\nvalue = 9.8"] ;
53 -> 57 ;
58 [label="guardian <= -0.7\nsquared_error = 0.1\nsamples = 11\nvalue = 9.9"] ;
57 -> 58 ;
59 [label="squared_error = 0.0\nsamples = 1\nvalue = 9.0"] ;
58 -> 59 ;
60 [label="Mjob <= -0.6\nsquared_error = 0.0\nsamples = 10\nvalue = 10.0"] ;
58 -> 60 ;
61 [label="absences <= 0.0\nsquared_error = 0.2\nsamples = 3\nvalue = 9.8"] ;
60 -> 61 ;
62 [label="squared_error = 0.0\nsamples = 2\nvalue = 10.0"] ;
61 -> 62 ;
63 [label="squared_error = 0.0\nsamples = 1\nvalue = 9.0"] ;
61 -> 63 ;
64 [label="squared_error = 0.0\nsamples = 7\nvalue = 10.0"] ;
60 -> 64 ;
65 [label="squared_error = 0.0\nsamples = 1\nvalue = 9.0"] ;
57 -> 65 ;
66 [label="absences <= 3.8\nsquared_error = 0.2\nsamples = 7\nvalue = 8.5"] ;
50 -> 66 ;
67 [label="nursery <= -0.7\nsquared_error = 0.1\nsamples = 5\nvalue = 8.9"] ;
66 -> 67 ;
68 [label="squared_error = 0.0\nsamples = 1\nvalue = 8.0"] ;
67 -> 68 ;
69 [label="squared_error = 0.0\nsamples = 4\nvalue = 9.0"] ;
67 -> 69 ;
70 [label="squared_error = 0.0\nsamples = 2\nvalue = 8.0"] ;
66 -> 70 ;
71 [label="squared_error = 0.0\nsamples = 1\nvalue = 0.0"] ;
49 -> 71 ;
72 [label="G2 <= 1.0\nsquared_error = 5.7\nsamples = 121\nvalue = 13.0"] ;
0 -> 72 [labeldistance=2.5, labelangle=-45, headlabel="False"] ;
73 [label="G2 <= 0.2\nsquared_error = 2.0\nsamples = 90\nvalue = 11.9"] ;
72 -> 73 ;
74 [label="famrel <= -0.5\nsquared_error = 0.8\nsamples = 41\nvalue = 10.7"] ;
73 -> 74 ;
75 [label="G2 <= -0.0\nsquared_error = 0.6\nsamples = 8\nvalue = 11.5"] ;
74 -> 75 ;
76 [label="school <= 1.1\nsquared_error = 0.4\nsamples = 4\nvalue = 11.0"] ;
75 -> 76 ;
77 [label="G1 <= -0.3\nsquared_error = 0.2\nsamples = 3\nvalue = 11.2"] ;
76 -> 77 ;
78 [label="squared_error = 0.0\nsamples = 2\nvalue = 11.0"] ;
77 -> 78 ;
79 [label="squared_error = 0.0\nsamples = 1\nvalue = 12.0"] ;
77 -> 79 ;
80 [label="squared_error = 0.0\nsamples = 1\nvalue = 10.0"] ;
76 -> 80 ;
81 [label="Mjob <= -0.6\nsquared_error = 0.3\nsamples = 4\nvalue = 12.0"] ;
75 -> 81 ;
82 [label="squared_error = 0.0\nsamples = 1\nvalue = 13.0"] ;
81 -> 82 ;
83 [label="G1 <= 0.5\nsquared_error = 0.2\nsamples = 3\nvalue = 11.8"] ;
81 -> 83 ;
84 [label="squared_error = 0.0\nsamples = 2\nvalue = 12.0"] ;
83 -> 84 ;
85 [label="squared_error = 0.0\nsamples = 1\nvalue = 11.0"] ;
83 -> 85 ;
86 [label="health <= 0.7\nsquared_error = 0.6\nsamples = 33\nvalue = 10.5"] ;
74 -> 86 ;
87 [label="age <= -0.9\nsquared_error = 0.4\nsamples = 24\nvalue = 10.8"] ;
86 -> 87 ;
88 [label="famsize <= 0.5\nsquared_error = 0.2\nsamples = 3\nvalue = 11.7"] ;
87 -> 88 ;
89 [label="squared_error = 0.0\nsamples = 2\nvalue = 11.0"] ;
88 -> 89 ;
90 [label="squared_error = 0.0\nsamples = 1\nvalue = 12.0"] ;
88 -> 90 ;
91 [label="G1 <= -0.1\nsquared_error = 0.3\nsamples = 21\nvalue = 10.6"] ;
87 -> 91 ;
92 [label="romantic <= 0.3\nsquared_error = 0.3\nsamples = 8\nvalue = 10.1"] ;
91 -> 92 ;
93 [label="freetime <= 0.2\nsquared_error = 0.1\nsamples = 6\nvalue = 9.9"] ;
92 -> 93 ;
94 [label="squared_error = 0.0\nsamples = 5\nvalue = 10.0"] ;
93 -> 94 ;
95 [label="squared_error = 0.0\nsamples = 1\nvalue = 9.0"] ;
93 -> 95 ;
96 [label="traveltime <= 0.1\nsquared_error = 0.2\nsamples = 2\nvalue = 10.7"] ;
92 -> 96 ;
97 [label="squared_error = 0.0\nsamples = 1\nvalue = 11.0"] ;
96 -> 97 ;
98 [label="squared_error = 0.0\nsamples = 1\nvalue = 10.0"] ;
96 -> 98 ;
99 [label="Mjob <= -1.4\nsquared_error = 0.1\nsamples = 13\nvalue = 10.8"] ;
91 -> 99 ;
100 [label="squared_error = 0.0\nsamples = 1\nvalue = 10.0"] ;
99 -> 100 ;
101 [label="Dalc <= 2.2\nsquared_error = 0.1\nsamples = 12\nvalue = 10.9"] ;
99 -> 101 ;
102 [label="age <= -0.2\nsquared_error = 0.0\nsamples = 11\nvalue = 11.0"] ;
101 -> 102 ;
103 [label="famrel <= 0.6\nsquared_error = 0.2\nsamples = 2\nvalue = 10.7"] ;
102 -> 103 ;
104 [label="squared_error = 0.0\nsamples = 1\nvalue = 10.0"] ;
103 -> 104 ;
105 [label="squared_error = 0.0\nsamples = 1\nvalue = 11.0"] ;
103 -> 105 ;
106 [label="squared_error = 0.0\nsamples = 9\nvalue = 11.0"] ;
102 -> 106 ;
107 [label="squared_error = 0.0\nsamples = 1\nvalue = 10.0"] ;
101 -> 107 ;
108 [label="G1 <= -0.1\nsquared_error = 0.6\nsamples = 9\nvalue = 9.8"] ;
86 -> 108 ;
109 [label="internet <= -0.9\nsquared_error = 0.2\nsamples = 4\nvalue = 9.2"] ;
108 -> 109 ;
110 [label="squared_error = 0.0\nsamples = 1\nvalue = 10.0"] ;
109 -> 110 ;
111 [label="squared_error = 0.0\nsamples = 3\nvalue = 9.0"] ;
109 -> 111 ;
112 [label="absences <= -0.7\nsquared_error = 0.2\nsamples = 5\nvalue = 10.6"] ;
108 -> 112 ;
113 [label="squared_error = 0.0\nsamples = 2\nvalue = 10.0"] ;
112 -> 113 ;
114 [label="squared_error = 0.0\nsamples = 3\nvalue = 11.0"] ;
112 -> 114 ;
115 [label="Walc <= 0.9\nsquared_error = 1.1\nsamples = 49\nvalue = 12.8"] ;
73 -> 115 ;
116 [label="G2 <= 0.5\nsquared_error = 0.7\nsamples = 36\nvalue = 13.1"] ;
115 -> 116 ;
117 [label="G1 <= 1.1\nsquared_error = 0.6\nsamples = 14\nvalue = 12.6"] ;
116 -> 117 ;
118 [label="absences <= -0.1\nsquared_error = 0.3\nsamples = 12\nvalue = 12.2"] ;
117 -> 118 ;
119 [label="activities <= -0.0\nsquared_error = 0.1\nsamples = 7\nvalue = 11.9"] ;
118 -> 119 ;
120 [label="squared_error = 0.0\nsamples = 1\nvalue = 11.0"] ;
119 -> 120 ;
121 [label="squared_error = 0.0\nsamples = 6\nvalue = 12.0"] ;
119 -> 121 ;
122 [label="studytime <= -0.6\nsquared_error = 0.2\nsamples = 5\nvalue = 12.7"] ;
118 -> 122 ;
123 [label="squared_error = 0.0\nsamples = 1\nvalue = 12.0"] ;
122 -> 123 ;
124 [label="squared_error = 0.0\nsamples = 4\nvalue = 13.0"] ;
122 -> 124 ;
125 [label="G1 <= 1.4\nsquared_error = 0.2\nsamples = 2\nvalue = 13.5"] ;
117 -> 125 ;
126 [label="squared_error = 0.0\nsamples = 1\nvalue = 14.0"] ;
125 -> 126 ;
127 [label="squared_error = 0.0\nsamples = 1\nvalue = 13.0"] ;
125 -> 127 ;
128 [label="activities <= -0.0\nsquared_error = 0.4\nsamples = 22\nvalue = 13.5"] ;
116 -> 128 ;
129 [label="Fedu <= 0.9\nsquared_error = 0.2\nsamples = 10\nvalue = 13.1"] ;
128 -> 129 ;
130 [label="famrel <= -2.2\nsquared_error = 0.1\nsamples = 7\nvalue = 12.9"] ;
129 -> 130 ;
131 [label="squared_error = 0.0\nsamples = 1\nvalue = 12.0"] ;
130 -> 131 ;
132 [label="squared_error = 0.0\nsamples = 6\nvalue = 13.0"] ;
130 -> 132 ;
133 [label="famsup <= -0.2\nsquared_error = 0.2\nsamples = 3\nvalue = 13.7"] ;
129 -> 133 ;
134 [label="squared_error = 0.0\nsamples = 1\nvalue = 13.0"] ;
133 -> 134 ;
135 [label="squared_error = 0.0\nsamples = 2\nvalue = 14.0"] ;
133 -> 135 ;
136 [label="Fedu <= -0.0\nsquared_error = 0.4\nsamples = 12\nvalue = 13.8"] ;
128 -> 136 ;
137 [label="Fjob <= 0.3\nsquared_error = 0.1\nsamples = 5\nvalue = 14.1"] ;
136 -> 137 ;
138 [label="squared_error = 0.0\nsamples = 4\nvalue = 14.0"] ;
137 -> 138 ;
139 [label="squared_error = 0.0\nsamples = 1\nvalue = 15.0"] ;
137 -> 139 ;
140 [label="reason <= 0.6\nsquared_error = 0.4\nsamples = 7\nvalue = 13.5"] ;
136 -> 140 ;
141 [label="G1 <= 0.5\nsquared_error = 0.1\nsamples = 3\nvalue = 12.8"] ;
140 -> 141 ;
142 [label="squared_error = 0.0\nsamples = 1\nvalue = 12.0"] ;
141 -> 142 ;
143 [label="squared_error = 0.0\nsamples = 2\nvalue = 13.0"] ;
141 -> 143 ;
144 [label="squared_error = 0.0\nsamples = 4\nvalue = 14.0"] ;
140 -> 144 ;
145 [label="romantic <= 0.3\nsquared_error = 0.9\nsamples = 13\nvalue = 11.9"] ;
115 -> 145 ;
146 [label="goout <= -1.4\nsquared_error = 0.6\nsamples = 5\nvalue = 11.2"] ;
145 -> 146 ;
147 [label="squared_error = 0.0\nsamples = 1\nvalue = 10.0"] ;
146 -> 147 ;
148 [label="famrel <= -0.5\nsquared_error = 0.2\nsamples = 4\nvalue = 11.5"] ;
146 -> 148 ;
149 [label="squared_error = 0.0\nsamples = 2\nvalue = 11.0"] ;
148 -> 149 ;
150 [label="squared_error = 0.0\nsamples = 2\nvalue = 12.0"] ;
148 -> 150 ;
151 [label="internet <= -0.9\nsquared_error = 0.4\nsamples = 8\nvalue = 12.5"] ;
145 -> 151 ;
152 [label="age <= 0.2\nsquared_error = 0.2\nsamples = 2\nvalue = 13.5"] ;
151 -> 152 ;
153 [label="squared_error = 0.0\nsamples = 1\nvalue = 14.0"] ;
152 -> 153 ;
154 [label="squared_error = 0.0\nsamples = 1\nvalue = 13.0"] ;
152 -> 154 ;
155 [label="paid <= 0.1\nsquared_error = 0.2\nsamples = 6\nvalue = 12.2"] ;
151 -> 155 ;
156 [label="squared_error = 0.0\nsamples = 3\nvalue = 12.0"] ;
155 -> 156 ;
157 [label="health <= 0.3\nsquared_error = 0.2\nsamples = 3\nvalue = 12.7"] ;
155 -> 157 ;
158 [label="squared_error = 0.0\nsamples = 2\nvalue = 13.0"] ;
157 -> 158 ;
159 [label="squared_error = 0.0\nsamples = 1\nvalue = 12.0"] ;
157 -> 159 ;
160 [label="G2 <= 1.6\nsquared_error = 1.7\nsamples = 31\nvalue = 16.3"] ;
72 -> 160 ;
161 [label="G2 <= 1.3\nsquared_error = 0.7\nsamples = 24\nvalue = 15.6"] ;
160 -> 161 ;
162 [label="famrel <= 0.6\nsquared_error = 0.3\nsamples = 17\nvalue = 15.3"] ;
161 -> 162 ;
163 [label="freetime <= 1.3\nsquared_error = 0.1\nsamples = 10\nvalue = 15.1"] ;
162 -> 163 ;
164 [label="squared_error = 0.0\nsamples = 9\nvalue = 15.0"] ;
163 -> 164 ;
165 [label="squared_error = 0.0\nsamples = 1\nvalue = 16.0"] ;
163 -> 165 ;
166 [label="age <= -0.9\nsquared_error = 0.4\nsamples = 7\nvalue = 15.9"] ;
162 -> 166 ;
167 [label="squared_error = 0.0\nsamples = 2\nvalue = 15.0"] ;
166 -> 167 ;
168 [label="Medu <= 0.7\nsquared_error = 0.2\nsamples = 5\nvalue = 16.2"] ;
166 -> 168 ;
169 [label="squared_error = 0.0\nsamples = 1\nvalue = 17.0"] ;
168 -> 169 ;
170 [label="squared_error = 0.0\nsamples = 4\nvalue = 16.0"] ;
168 -> 170 ;
171 [label="Mjob <= 1.1\nsquared_error = 0.7\nsamples = 7\nvalue = 16.2"] ;
161 -> 171 ;
172 [label="absences <= -0.3\nsquared_error = 0.2\nsamples = 6\nvalue = 15.9"] ;
171 -> 172 ;
173 [label="Fjob <= 1.4\nsquared_error = 0.1\nsamples = 5\nvalue = 16.1"] ;
172 -> 173 ;
174 [label="squared_error = 0.0\nsamples = 4\nvalue = 16.0"] ;
173 -> 174 ;
175 [label="squared_error = 0.0\nsamples = 1\nvalue = 17.0"] ;
173 -> 175 ;
176 [label="squared_error = 0.0\nsamples = 1\nvalue = 15.0"] ;
172 -> 176 ;
177 [label="squared_error = 0.0\nsamples = 1\nvalue = 18.0"] ;
171 -> 177 ;
178 [label="G2 <= 2.1\nsquared_error = 0.9\nsamples = 7\nvalue = 17.9"] ;
160 -> 178 ;
179 [label="Dalc <= -0.0\nsquared_error = 0.2\nsamples = 6\nvalue = 17.5"] ;
178 -> 179 ;
180 [label="squared_error = 0.0\nsamples = 4\nvalue = 18.0"] ;
179 -> 180 ;
181 [label="squared_error = 0.0\nsamples = 2\nvalue = 17.0"] ;
179 -> 181 ;
182 [label="squared_error = 0.0\nsamples = 1\nvalue = 20.0"] ;
178 -> 182 ;
}